digraph Tree {
node [shape=box] ;
0 [label="X[2429] <= 5.165\nentropy = 1.407\nsamples = 63\nvalue = [34, 9, 20]"] ;
1 [label="X[5479] <= 0.968\nentropy = 0.276\nsamples = 21\nvalue = [0, 1, 20]"] ;
0 -> 1 [labeldistance=2.5, labelangle=45, headlabel="True"] ;
2 [label="entropy = 0.0\nsamples = 1\nvalue = [0, 1, 0]"] ;
1 -> 2 ;
3 [label="entropy = 0.0\nsamples = 20\nvalue = [0, 0, 20]"] ;
1 -> 3 ;
4 [label="X[17882] <= 0.5\nentropy = 0.702\nsamples = 42\nvalue = [34, 8, 0]"] ;
0 -> 4 [labeldistance=2.5, labelangle=-45, headlabel="False"] ;
5 [label="X[11275] <= 0.5\nentropy = 0.845\nsamples = 11\nvalue = [3, 8, 0]"] ;
4 -> 5 ;
6 [label="entropy = 0.0\nsamples = 3\nvalue = [3, 0, 0]"] ;
5 -> 6 ;
7 [label="entropy = 0.0\nsamples = 8\nvalue = [0, 8, 0]"] ;
5 -> 7 ;
8 [label="entropy = 0.0\nsamples = 31\nvalue = [31, 0, 0]"] ;
4 -> 8 ;
}